{
  "operators": [
    {
      "nodeType": "onnx::Gemm",
      "nodeAttributes": {
        "alpha": 1.0,
        "beta": 1.0,
        "transA": 0,
        "transB": 1
      },
      "nodeInputs": [
        "input_0",
        "0_weight",
        "0_bias"
      ],
      "nodeOutputs": [
        "out_0_1"
      ],
      "nodeDType": [
        "Float"
      ]
    },
    {
      "nodeType": "onnx::Elu",
      "nodeAttributes": {
        "alpha": 1.5
      },
      "nodeInputs": [
        "out_0_1"
      ],
      "nodeOutputs": [
        "out_1_2"
      ],
      "nodeDType": [
        "Float"
      ]
    }
  ],
  "initializers": {
    "0_weight": {
      "shape": [
        8,
        16
      ],
      "dtype": "Float",
      "data": [
        -0.09556278586387634,
        -0.048033326864242554,
        0.13233423233032227,
        0.0954369306564331,
        0.08699658513069153,
        -0.03682607412338257,
        -0.007245093584060669,
        0.002705782651901245,
        0.24397867918014526,
        0.12433087825775146,
        -0.11560380458831787,
        -0.15017101168632507,
        -0.10266968607902527,
        0.24523210525512695,
        -0.2253497838973999,
        -0.20211106538772583,
        0.2029326856136322,
        -0.07366862893104553,
        0.16928499937057495,
        -0.0319686233997345,
        -0.16048935055732727,
        0.11364245414733887,
        -0.14658397436141968,
        -0.16537034511566162,
        -0.17985132336616516,
        0.0845763087272644,
        -0.009301036596298218,
        -0.03817078471183777,
        0.22486183047294617,
        -0.02313479781150818,
        0.13833895325660706,
        0.044804930686950684,
        0.053959667682647705,
        -0.049989551305770874,
        -0.22099193930625916,
        -0.19634419679641724,
        0.24968481063842773,
        0.012325197458267212,
        -0.15899404883384705,
        0.210020512342453,
        -0.19907358288764954,
        -0.24272626638412476,
        0.061252713203430176,
        -0.14419817924499512,
        0.017264634370803833,
        0.1782730519771576,
        0.1548134684562683,
        -0.20209550857543945,
        -0.015860021114349365,
        -0.12002477049827576,
        -0.06300288438796997,
        0.12736505270004272,
        0.24688130617141724,
        -0.05561429262161255,
        -0.2423565685749054,
        -0.21029430627822876,
        0.0686350166797638,
        -0.08697932958602905,
        -0.18341177701950073,
        0.1413884460926056,
        0.22454598546028137,
        -0.16628894209861755,
        -0.20471224188804626,
        0.13804826140403748,
        -0.21804362535476685,
        0.1346660852432251,
        -0.13561370968818665,
        0.16715535521507263,
        0.2232704758644104,
        -0.035500794649124146,
        0.034076422452926636,
        -0.06145462393760681,
        -0.17418953776359558,
        -0.011654168367385864,
        0.10588440299034119,
        -0.011846810579299927,
        0.2016567587852478,
        -0.1810738444328308,
        -0.05018934607505798,
        -0.11002609133720398,
        0.046776413917541504,
        0.1718004047870636,
        0.14007964730262756,
        -0.083944171667099,
        0.021104365587234497,
        0.05271998047828674,
        -0.005116850137710571,
        -0.0858699381351471,
        0.12374788522720337,
        -0.026499241590499878,
        0.09699997305870056,
        0.11980476975440979,
        0.11754867434501648,
        0.13157230615615845,
        0.08808755874633789,
        0.18885579705238342,
        -0.0641472339630127,
        -0.06184244155883789,
        -0.06361013650894165,
        0.19892185926437378,
        0.14864930510520935,
        -0.012869060039520264,
        0.11440664529800415,
        -0.05696985125541687,
        -0.03536596894264221,
        0.00240519642829895,
        -0.10559874773025513,
        0.15414607524871826,
        -0.18803271651268005,
        -0.002266436815261841,
        0.08315989375114441,
        -0.05487897992134094,
        -0.14250576496124268,
        -0.010129779577255249,
        0.22438877820968628,
        -0.09560579061508179,
        -0.1674499809741974,
        -0.13479864597320557,
        0.08873087167739868,
        -0.09070828557014465,
        0.17616522312164307,
        0.10685008764266968,
        -0.132833331823349,
        -0.01231268048286438,
        0.13956624269485474,
        0.1927352249622345,
        -0.24062681198120117,
        0.22739127278327942
      ]
    },
    "0_bias": {
      "shape": [
        8
      ],
      "dtype": "Float",
      "data": [
        -0.11634033918380737,
        0.24251997470855713,
        0.010665595531463623,
        0.08779430389404297,
        -0.18988648056983948,
        -0.0576137900352478,
        0.09914997220039368,
        0.014124393463134766
      ]
    }
  },
  "inputs": {
    "input_0": [
      1,
      16
    ]
  },
  "outputs": {
    "out_1_2": null
  }
}