{
  "operators": [
    {
      "nodeType": "onnx::Gemm",
      "nodeAttributes": {
        "alpha": 1.0,
        "beta": 1.0,
        "transA": 0,
        "transB": 1
      },
      "nodeInputs": [
        "input_0",
        "0_weight",
        "0_bias"
      ],
      "nodeOutputs": [
        "out_0_1"
      ],
      "nodeDType": [
        "Float"
      ]
    },
    {
      "nodeType": "onnx::Relu",
      "nodeAttributes": {},
      "nodeInputs": [
        "out_0_1"
      ],
      "nodeOutputs": [
        "out_1_2"
      ],
      "nodeDType": [
        "Float"
      ]
    },
    {
      "nodeType": "onnx::Gemm",
      "nodeAttributes": {
        "alpha": 1.0,
        "beta": 1.0,
        "transA": 0,
        "transB": 1
      },
      "nodeInputs": [
        "out_1_2",
        "2_weight",
        "2_bias"
      ],
      "nodeOutputs": [
        "out_2_3"
      ],
      "nodeDType": [
        "Float"
      ]
    },
    {
      "nodeType": "onnx::Relu",
      "nodeAttributes": {},
      "nodeInputs": [
        "out_2_3"
      ],
      "nodeOutputs": [
        "out_3_4"
      ],
      "nodeDType": [
        "Float"
      ]
    }
  ],
  "initializers": {
    "0_weight": {
      "shape": [
        16,
        32
      ],
      "dtype": "Float",
      "data": [
        -0.14178958535194397,
        -0.1566510647535324,
        0.13615895807743073,
        -0.044427983462810516,
        0.062401462346315384,
        -0.06714260578155518,
        0.0721510648727417,
        -0.0531696192920208,
        0.13443993031978607,
        -0.0637185126543045,
        -0.0659116879105568,
        0.06928402185440063,
        -0.15720005333423615,
        -0.053817711770534515,
        -0.06977853178977966,
        -0.009244047105312347,
        -0.0067136348225176334,
        0.1262703537940979,
        0.020059222355484962,
        -0.11698867380619049,
        0.15173061192035675,
        -0.0003435389662627131,
        -0.15614978969097137,
        -0.15695159137248993,
        0.10689481347799301,
        -0.029117634519934654,
        -0.1351400911808014,
        0.06294810771942139,
        0.14756058156490326,
        0.13556921482086182,
        0.10452844202518463,
        0.08127947896718979,
        -0.12016285210847855,
        0.007356205489486456,
        0.1209590956568718,
        -0.10973700881004333,
        -0.11365776509046555,
        0.005518055055290461,
        -0.03514876589179039,
        -0.14758427441120148,
        -0.0630345270037651,
        0.10847818851470947,
        -0.0688844695687294,
        0.0976685956120491,
        -0.17409063875675201,
        -0.009929544292390347,
        0.16633087396621704,
        -0.03088856115937233,
        0.030944615602493286,
        -0.010921386070549488,
        -0.1748831570148468,
        -0.12143179029226303,
        -0.15855306386947632,
        -0.08733408153057098,
        -0.03359318897128105,
        -0.09972982853651047,
        -0.05864124745130539,
        -0.027032440528273582,
        -0.048220083117485046,
        -0.11259711533784866,
        0.06620163470506668,
        0.05794630944728851,
        0.09613152593374252,
        0.1198183074593544,
        -0.05961627513170242,
        0.1387721449136734,
        -0.06306557357311249,
        0.011369891464710236,
        -0.03562569618225098,
        -0.16493266820907593,
        0.13525515794754028,
        -0.04351799190044403,
        0.15616926550865173,
        0.016691647469997406,
        -0.0442434623837471,
        -0.13309252262115479,
        0.15587152540683746,
        -0.06869615614414215,
        0.07054678350687027,
        0.13412103056907654,
        0.03998378664255142,
        -0.034268442541360855,
        -0.04833103343844414,
        -0.00839605275541544,
        -0.06674880534410477,
        0.10841212421655655,
        -0.12120704352855682,
        -0.09486958384513855,
        -0.08063528686761856,
        -0.09741027653217316,
        -0.07406039535999298,
        -0.10946402698755264,
        0.15387514233589172,
        -0.08964326977729797,
        -0.15792541205883026,
        -0.15553516149520874,
        0.10134369879961014,
        0.029366174712777138,
        -0.1022154837846756,
        -0.043717049062252045,
        0.16852693259716034,
        -0.041174013167619705,
        -0.1501077264547348,
        -0.15281641483306885,
        0.013123306445777416,
        -0.13678839802742004,
        0.0709676444530487,
        0.06999561190605164,
        -0.00472114235162735,
        0.03684039041399956,
        -0.06512077897787094,
        0.1272667944431305,
        -0.13498049974441528,
        0.163679838180542,
        -0.009482829831540585,
        -0.11524153500795364,
        0.0029725118074566126,
        -0.12959957122802734,
        0.01643221266567707,
        -0.16135603189468384,
        0.02315417118370533,
        -0.07544168084859848,
        -0.008032619953155518,
        0.08595864474773407,
        -0.016577409580349922,
        -0.07532714307308197,
        -0.08938981592655182,
        -0.1754174381494522,
        -0.018077077344059944,
        0.028619248420000076,
        -0.013622324913740158,
        0.02116486057639122,
        -0.15747255086898804,
        -0.16180334985256195,
        0.14978231489658356,
        -0.1753086894750595,
        0.14618916809558868,
        -0.002897806465625763,
        0.05186159163713455,
        0.027255354449152946,
        -0.061379991471767426,
        0.007600361946970224,
        -0.1628941148519516,
        0.021053489297628403,
        0.04630781710147858,
        0.04047068953514099,
        0.0790337473154068,
        0.15040655434131622,
        0.08287492394447327,
        -0.06116146221756935,
        0.07240213453769684,
        -0.17608758807182312,
        0.021586434915661812,
        -0.07458993047475815,
        0.12360207736492157,
        -0.12371387332677841,
        0.14250576496124268,
        0.1558256447315216,
        -0.16379176080226898,
        0.006217250134795904,
        -0.14745062589645386,
        0.04913441464304924,
        -0.1727987825870514,
        -0.01893613673746586,
        0.06730332970619202,
        -0.062365807592868805,
        -0.06467849016189575,
        -0.11115242540836334,
        0.14766640961170197,
        0.17208947241306305,
        0.1068120002746582,
        -0.045695170760154724,
        0.026091890409588814,
        0.015882322564721107,
        -0.13356003165245056,
        0.046714700758457184,
        0.10285196453332901,
        0.08395898342132568,
        -0.06463198363780975,
        0.12166429311037064,
        -0.07662396132946014,
        -0.022502433508634567,
        -0.004330061841756105,
        0.05046326294541359,
        -0.0019008017843589187,
        -0.13977700471878052,
        -0.13199326395988464,
        0.06348935514688492,
        -0.010474651120603085,
        -0.03247016295790672,
        -0.004458272363990545,
        0.062167294323444366,
        -0.15003274381160736,
        0.1238771304488182,
        0.16376721858978271,
        0.16378380358219147,
        0.048119645565748215,
        0.12446505576372147,
        0.09320364147424698,
        0.07552344352006912,
        -0.11702942848205566,
        -0.025050990283489227,
        0.04354152828454971,
        0.028098586946725845,
        0.1445496529340744,
        -0.03431739658117294,
        -0.10680931806564331,
        -0.16288310289382935,
        -0.07607758790254593,
        -0.10522755235433578,
        0.1481710970401764,
        -0.14239723980426788,
        0.037232525646686554,
        -0.011342369951307774,
        0.13932903110980988,
        -0.1460956633090973,
        -0.13637682795524597,
        0.0454675555229187,
        -0.07661732286214828,
        -0.13959220051765442,
        0.10563588887453079,
        -0.11699039489030838,
        -0.025081884115934372,
        0.016067853197455406,
        0.07903935015201569,
        -0.02443372830748558,
        0.0012838983675464988,
        0.040409576147794724,
        -0.17056113481521606,
        -0.03018125146627426,
        0.13103559613227844,
        -0.15357734262943268,
        -0.16911059617996216,
        -0.07286839932203293,
        0.03135177493095398,
        -0.08543077856302261,
        -0.12633079290390015,
        0.07700873911380768,
        0.13001000881195068,
        0.07173088192939758,
        -0.1523035317659378,
        -0.03122122585773468,
        -0.1301979422569275,
        0.1154824048280716,
        -0.10321415215730667,
        0.05076193809509277,
        -0.08975837379693985,
        0.033741649240255356,
        -0.13007916510105133,
        0.028285719454288483,
        -0.09435254335403442,
        -0.08596380800008774,
        0.09119142591953278,
        0.1253248155117035,
        0.015589592047035694,
        0.051350560039281845,
        -0.07990390807390213,
        -0.11952093988656998,
        0.07015445828437805,
        0.10581140965223312,
        -0.035575415939092636,
        0.026329852640628815,
        0.12746243178844452,
        -0.050482504069805145,
        -0.03827471286058426,
        0.175946906208992,
        -0.025395246222615242,
        0.1370430290699005,
        -0.17348970472812653,
        -0.12313070893287659,
        0.08355072885751724,
        0.15667983889579773,
        0.020302915945649147,
        0.04840628802776337,
        -0.08279729634523392,
        -0.034907642751932144,
        0.11059868335723877,
        -0.08477883040904999,
        0.13292215764522552,
        -0.08800959587097168,
        -0.126351460814476,
        -0.04758478328585625,
        -0.15661300718784332,
        0.08554185181856155,
        0.09966595470905304,
        0.09660281240940094,
        0.0921752005815506,
        -0.09855279326438904,
        0.02035062573850155,
        0.010368862189352512,
        0.06026162579655647,
        0.04571192339062691,
        0.03517645597457886,
        -0.03303175047039986,
        0.15557488799095154,
        -0.13815253973007202,
        -0.0701872706413269,
        -0.1245747059583664,
        -0.11187012493610382,
        0.037418708205223083,
        0.1710711419582367,
        -0.11292468011379242,
        0.008940758183598518,
        0.10359027236700058,
        0.13547953963279724,
        0.13612891733646393,
        -0.1354534775018692,
        -0.16591404378414154,
        -0.005542057566344738,
        0.0881822258234024,
        0.08703115582466125,
        -0.08910471946001053,
        0.09697705507278442,
        -0.11851958930492401,
        0.14957855641841888,
        -0.10120132565498352,
        0.10762497037649155,
        -0.1424190104007721,
        -0.007889004424214363,
        0.0008871490135788918,
        0.028163302689790726,
        -0.08996172994375229,
        -0.020948458462953568,
        0.16269133985042572,
        0.03469043970108032,
        -0.06712515652179718,
        -0.11731931567192078,
        -0.05590162053704262,
        0.13143764436244965,
        -0.06171185523271561,
        -0.053242363035678864,
        -0.11291083693504333,
        -0.16449707746505737,
        0.1406676322221756,
        0.17339420318603516,
        -0.1666518598794937,
        -0.05511690676212311,
        -0.08516702055931091,
        -0.15913376212120056,
        -0.10297737270593643,
        0.13272634148597717,
        -0.015221776440739632,
        0.1624646782875061,
        -0.05817579850554466,
        0.14977413415908813,
        -0.03452248126268387,
        -0.11231652647256851,
        -0.09201889485120773,
        -0.17433278262615204,
        -0.05456668138504028,
        -0.13545788824558258,
        0.14890079200267792,
        0.06918976455926895,
        -0.06956525146961212,
        -0.11304538697004318,
        0.017724519595503807,
        0.16646280884742737,
        0.023411942645907402,
        -0.12297550588846207,
        0.013771671801805496,
        -0.07456497848033905,
        -0.03477338328957558,
        -0.10079551488161087,
        0.02148408256471157,
        0.11179820448160172,
        0.0022921774070709944,
        -0.06418836116790771,
        -0.024104434996843338,
        0.054722562432289124,
        0.12211956083774567,
        0.019280854612588882,
        -0.15823985636234283,
        -0.15881891548633575,
        0.12218503654003143,
        -0.10971401631832123,
        0.06783202290534973,
        0.06793787330389023,
        0.16911156475543976,
        -0.1381312757730484,
        0.05091923102736473,
        0.12228865921497345,
        -0.059153228998184204,
        0.12031717598438263,
        -0.09848497807979584,
        -0.05843856558203697,
        0.13772660493850708,
        0.0447036437690258,
        0.1426784247159958,
        -0.08260790258646011,
        -0.1287166029214859,
        0.14231742918491364,
        -0.15330736339092255,
        0.09136747568845749,
        0.16284477710723877,
        -0.11645420640707016,
        0.0281562227755785,
        0.09356711804866791,
        0.1360834687948227,
        0.018946504220366478,
        0.14409419894218445,
        0.06822310388088226,
        0.11471189558506012,
        -0.10180895775556564,
        -0.06984508037567139,
        -0.07266346365213394,
        0.1707824170589447,
        -0.09545812010765076,
        0.07865072041749954,
        -0.09886536002159119,
        0.09246323257684708,
        -0.126839280128479,
        -0.066141277551651,
        0.16905710101127625,
        0.013559505343437195,
        0.0481935515999794,
        -0.11898752301931381,
        -0.029190337285399437,
        -0.0704990103840828,
        -0.07626236230134964,
        0.11769125610589981,
        0.11090860515832901,
        -0.040842507034540176,
        0.021773040294647217,
        -0.021729186177253723,
        -0.12943732738494873,
        -0.042007025331258774,
        0.07350452244281769,
        -0.12053070962429047,
        -0.1481497883796692,
        -0.11770415306091309,
        -0.03821635991334915,
        0.04080944508314133,
        0.1705498993396759,
        -0.08656150847673416,
        -0.17459549009799957,
        -0.12001291662454605,
        -0.16954897344112396,
        0.0739261582493782,
        0.06673339754343033,
        -0.1593015491962433,
        -0.1276499330997467,
        -0.07603828608989716,
        0.10943810641765594,
        0.1288466602563858,
        0.07369875907897949,
        0.027507856488227844,
        0.13692481815814972,
        0.09219079464673996,
        0.16833272576332092,
        -0.045052558183670044,
        -0.05381530895829201,
        0.01688912697136402,
        0.14603595435619354,
        0.09278243035078049,
        0.1542871743440628,
        0.016150208190083504,
        -0.08489628881216049,
        -0.17317397892475128,
        -0.045773688703775406,
        -0.13905955851078033,
        0.17548465728759766,
        0.14177235960960388,
        0.04124235361814499,
        -0.0256161168217659,
        -0.044635873287916183,
        0.11879110336303711,
        0.14941217005252838,
        0.13912394642829895,
        -0.08150612562894821,
        -0.10044834762811661,
        -0.13977181911468506,
        0.06574413180351257,
        -0.12900185585021973,
        -0.17551986873149872,
        -0.10302527248859406,
        0.03336239233613014,
        0.17092852294445038,
        0.1457153558731079,
        -0.03735373914241791,
        0.031071078032255173,
        0.15721096098423004,
        -0.05518687143921852,
        0.03324035555124283,
        -0.1465199589729309,
        -0.17152737081050873,
        -0.11731897294521332,
        -0.09434384107589722,
        -0.1670209765434265,
        -0.02539813332259655,
        -0.01153158862143755,
        -0.043069105595350266,
        -0.05228651687502861,
        0.04501612111926079,
        0.0990278348326683,
        0.040591441094875336,
        0.14880403876304626,
        -0.03379252180457115,
        0.05643943324685097,
        0.07860985398292542,
        -0.16293290257453918,
        0.07222214341163635,
        -0.06580271571874619,
        -0.16425549983978271,
        -0.05581732466816902,
        -0.04975104704499245,
        -0.03014764003455639,
        0.04718128964304924,
        -0.02713346667587757,
        0.09623086452484131,
        -0.06972785294055939,
        -0.041343655437231064,
        0.06578366458415985
      ]
    },
    "0_bias": {
      "shape": [
        16
      ],
      "dtype": "Float",
      "data": [
        0.11762920022010803,
        0.062095437198877335,
        -0.1762949526309967,
        0.10131251066923141,
        -0.06378602981567383,
        -0.06392031162977219,
        0.04203728586435318,
        0.12421028316020966,
        0.1617804914712906,
        -0.015592669136822224,
        0.07554396986961365,
        -0.1599956899881363,
        0.13715146481990814,
        -0.14064086973667145,
        0.0563826821744442,
        -0.05327264592051506
      ]
    },
    "2_weight": {
      "shape": [
        8,
        16
      ],
      "dtype": "Float",
      "data": [
        -0.1546371877193451,
        0.004709005355834961,
        0.10510927438735962,
        0.05089598894119263,
        -0.06492793560028076,
        -0.19724279642105103,
        0.20050251483917236,
        0.21072286367416382,
        0.05359533429145813,
        0.1313253939151764,
        0.20332562923431396,
        -0.10963940620422363,
        -0.17885348200798035,
        0.24670127034187317,
        0.17982575297355652,
        0.20328688621520996,
        0.060402363538742065,
        0.03399685025215149,
        0.13227736949920654,
        -0.13693660497665405,
        -0.02578037977218628,
        -0.07021886110305786,
        -0.17842894792556763,
        0.025501132011413574,
        0.08487790822982788,
        0.022062212228775024,
        -0.0923275351524353,
        0.020040959119796753,
        -0.20782852172851562,
        0.08861345052719116,
        0.0010833740234375,
        0.10672438144683838,
        -0.022714972496032715,
        -0.15627342462539673,
        0.13350102305412292,
        0.08773869276046753,
        -0.03780373930931091,
        -0.0006105303764343262,
        -0.1053817868232727,
        -0.11353674530982971,
        -0.04922559857368469,
        0.09659209847450256,
        -0.1999882459640503,
        0.05001723766326904,
        0.01920035481452942,
        -0.11856025457382202,
        0.023362070322036743,
        -0.016732245683670044,
        0.03444099426269531,
        0.2431786060333252,
        -0.040284574031829834,
        -0.020338386297225952,
        -0.20860996842384338,
        0.016344070434570312,
        0.009397506713867188,
        0.04689440131187439,
        -0.19133096933364868,
        0.0726921558380127,
        0.16388943791389465,
        0.12975651025772095,
        0.07634559273719788,
        -0.16708871722221375,
        0.20431867241859436,
        0.22154289484024048,
        -0.1396569311618805,
        -0.14639067649841309,
        0.044799357652664185,
        0.1695968210697174,
        -0.12670114636421204,
        0.1061842143535614,
        0.16966992616653442,
        -0.13098382949829102,
        -0.23997151851654053,
        -0.04797038435935974,
        -0.0020372867584228516,
        -0.035899996757507324,
        0.23623529076576233,
        -0.06608372926712036,
        0.029500097036361694,
        -0.06268608570098877,
        0.05727627873420715,
        0.056427448987960815,
        -0.18242508172988892,
        0.09101501107215881,
        -0.08152973651885986,
        0.05399879813194275,
        -0.064208984375,
        0.13984057307243347,
        -0.11856687068939209,
        -0.022198885679244995,
        0.2097010612487793,
        -0.08473491668701172,
        0.007562726736068726,
        -0.19980645179748535,
        0.004221022129058838,
        -0.23439687490463257,
        0.02744603157043457,
        0.24790117144584656,
        -0.17746460437774658,
        -0.16451862454414368,
        0.0026331841945648193,
        0.018463551998138428,
        -0.1242331862449646,
        0.11177146434783936,
        -0.0569193959236145,
        -0.1930350959300995,
        -0.06092074513435364,
        0.24614831805229187,
        -0.15682420134544373,
        -0.1371416449546814,
        -0.13827088475227356,
        0.10446739196777344,
        0.034634560346603394,
        0.08290806412696838,
        -0.039792150259017944,
        -0.026300698518753052,
        -0.020251035690307617,
        0.12847059965133667,
        -0.09758016467094421,
        0.03935930132865906,
        0.09781014919281006,
        0.10075348615646362,
        -0.062349915504455566,
        0.015384137630462646,
        -0.20603102445602417,
        0.2474239468574524,
        0.19180557131767273,
        0.23602622747421265
      ]
    },
    "2_bias": {
      "shape": [
        8
      ],
      "dtype": "Float",
      "data": [
        0.11765256524085999,
        0.009126901626586914,
        0.14205235242843628,
        0.21733728051185608,
        0.05636531114578247,
        0.10742190480232239,
        0.05300164222717285,
        -0.08252137899398804
      ]
    }
  },
  "inputs": {
    "input_0": [
      2,
      32
    ]
  },
  "outputs": {
    "out_3_4": null
  }
}