{
  "operators": [
    {
      "nodeType": "onnx::Gemm",
      "nodeAttributes": {
        "alpha": 1.0,
        "beta": 1.0,
        "transA": 0,
        "transB": 1
      },
      "nodeInputs": [
        "input_0",
        "0_weight",
        "0_bias"
      ],
      "nodeOutputs": [
        "out_0_1"
      ],
      "nodeDType": [
        "Float"
      ]
    },
    {
      "nodeType": "onnx::Elu",
      "nodeAttributes": {
        "alpha": 1.5
      },
      "nodeInputs": [
        "out_0_1"
      ],
      "nodeOutputs": [
        "out_1_2"
      ],
      "nodeDType": [
        "Float"
      ]
    }
  ],
  "initializers": {
    "0_weight": {
      "shape": [
        8,
        16
      ],
      "dtype": "Float",
      "data": [
        -0.2352617383003235,
        0.19054484367370605,
        -0.043832868337631226,
        -0.09162425994873047,
        0.05731910467147827,
        -0.12359103560447693,
        -0.21269828081130981,
        0.18279466032981873,
        0.163617342710495,
        -0.12734264135360718,
        0.22768864035606384,
        -0.24541404843330383,
        -0.16378313302993774,
        -0.1560966670513153,
        0.13686969876289368,
        0.11712107062339783,
        -0.050541698932647705,
        0.19007959961891174,
        -0.08709472417831421,
        -0.11646243929862976,
        -0.17431944608688354,
        0.18826442956924438,
        0.0613349974155426,
        0.18911612033843994,
        0.2416551113128662,
        0.02761906385421753,
        -0.022725433111190796,
        -0.14336201548576355,
        0.03312060236930847,
        -0.18214863538742065,
        0.2420235276222229,
        -0.0722748339176178,
        0.22816768288612366,
        -0.24985650181770325,
        0.2439669966697693,
        0.17665812373161316,
        0.1906244456768036,
        0.09452575445175171,
        0.09626120328903198,
        0.0280306339263916,
        -0.005576401948928833,
        -0.18558230996131897,
        0.13293114304542542,
        0.022163808345794678,
        0.12342041730880737,
        -0.03075280785560608,
        0.15454256534576416,
        -0.02536633610725403,
        0.22923219203948975,
        -0.08877027034759521,
        0.18340730667114258,
        -0.09606483578681946,
        -0.15870749950408936,
        0.20006006956100464,
        0.22611132264137268,
        -0.16012021899223328,
        -0.01380610466003418,
        0.06015166640281677,
        -0.1315244734287262,
        0.13737568259239197,
        0.08259445428848267,
        0.025307565927505493,
        -0.20096665620803833,
        -0.11480852961540222,
        0.09013360738754272,
        0.21904507279396057,
        0.06662067770957947,
        0.16067591309547424,
        0.18019583821296692,
        0.1006513237953186,
        0.19585615396499634,
        -0.002506554126739502,
        -0.09057602286338806,
        0.17908766865730286,
        0.1217089295387268,
        0.16856276988983154,
        0.0773240327835083,
        -0.20959991216659546,
        0.19335094094276428,
        -0.05105319619178772,
        -0.09387004375457764,
        -0.06718507409095764,
        -0.23212173581123352,
        -0.07681110501289368,
        0.19202685356140137,
        0.13566485047340393,
        0.19911694526672363,
        -0.055847227573394775,
        0.09116145968437195,
        0.0718432068824768,
        0.2478787899017334,
        -0.047647178173065186,
        -0.14905905723571777,
        -0.03854340314865112,
        0.24635031819343567,
        -0.13082048296928406,
        -0.15650680661201477,
        0.15938249230384827,
        -0.17910248041152954,
        -0.0891600251197815,
        0.19965672492980957,
        -0.2103084921836853,
        -0.09730762243270874,
        0.04260343313217163,
        0.22763150930404663,
        0.13561347126960754,
        0.21481075882911682,
        -0.04741284251213074,
        -0.13328802585601807,
        0.22205275297164917,
        -0.24901914596557617,
        0.09440064430236816,
        0.16129127144813538,
        0.10619613528251648,
        -0.08008071780204773,
        -0.0808832049369812,
        0.15784966945648193,
        -0.1874491274356842,
        0.011409670114517212,
        0.178926020860672,
        0.014810681343078613,
        -0.09795421361923218,
        -0.19232457876205444,
        0.021954059600830078,
        -0.1336022913455963,
        0.21339017152786255,
        0.047187596559524536,
        0.24166172742843628
      ]
    },
    "0_bias": {
      "shape": [
        8
      ],
      "dtype": "Float",
      "data": [
        -0.09391584992408752,
        -0.22558391094207764,
        -0.10487231612205505,
        -0.08762764930725098,
        -0.14477604627609253,
        0.11311885714530945,
        0.15208086371421814,
        0.20583775639533997
      ]
    }
  },
  "inputs": {
    "input_0": [
      1,
      16
    ]
  },
  "outputs": {
    "out_1_2": null
  }
}