{
  "operators": [
    {
      "nodeType": "onnx::Gemm",
      "nodeAttributes": {
        "alpha": 1.0,
        "beta": 1.0,
        "transA": 0,
        "transB": 1
      },
      "nodeInputs": [
        "input_0",
        "0_weight",
        "0_bias"
      ],
      "nodeOutputs": [
        "out_0_1"
      ],
      "nodeDType": [
        "Float"
      ]
    },
    {
      "nodeType": "onnx::Relu",
      "nodeAttributes": {},
      "nodeInputs": [
        "out_0_1"
      ],
      "nodeOutputs": [
        "out_1_2"
      ],
      "nodeDType": [
        "Float"
      ]
    },
    {
      "nodeType": "onnx::Gemm",
      "nodeAttributes": {
        "alpha": 1.0,
        "beta": 1.0,
        "transA": 0,
        "transB": 1
      },
      "nodeInputs": [
        "out_1_2",
        "2_weight",
        "2_bias"
      ],
      "nodeOutputs": [
        "out_2_3"
      ],
      "nodeDType": [
        "Float"
      ]
    },
    {
      "nodeType": "onnx::Relu",
      "nodeAttributes": {},
      "nodeInputs": [
        "out_2_3"
      ],
      "nodeOutputs": [
        "out_3_4"
      ],
      "nodeDType": [
        "Float"
      ]
    }
  ],
  "initializers": {
    "0_weight": {
      "shape": [
        16,
        32
      ],
      "dtype": "Float",
      "data": [
        0.003984563052654266,
        -0.14452385902404785,
        0.01081209909170866,
        -0.14354898035526276,
        -0.03912182152271271,
        -0.08115790784358978,
        0.17386019229888916,
        -0.0003755705547519028,
        -0.13908390700817108,
        -0.17575331032276154,
        0.06575871258974075,
        0.028833290562033653,
        -0.0655277892947197,
        0.14824049174785614,
        -0.0047641112469136715,
        0.16995781660079956,
        0.12439783662557602,
        -0.06323974579572678,
        -0.16441906988620758,
        -0.047088101506233215,
        0.05172012373805046,
        0.01507959421724081,
        -0.0975380688905716,
        0.07347352802753448,
        0.1044156551361084,
        0.13883107900619507,
        0.14730620384216309,
        -0.14344950020313263,
        -0.0031737207900732756,
        -0.1263425499200821,
        -0.07642553001642227,
        0.17584185302257538,
        0.033064305782318115,
        -0.06690285354852676,
        0.010106055065989494,
        -0.13589274883270264,
        -0.15307165682315826,
        -0.1216052919626236,
        -0.02492130547761917,
        -0.0702785849571228,
        0.15516473352909088,
        -0.1391620635986328,
        -0.024553552269935608,
        -0.13903814554214478,
        0.01172112300992012,
        -0.026921046897768974,
        0.10966995358467102,
        -0.11111666262149811,
        0.11420472711324692,
        0.08529548346996307,
        -0.09364371746778488,
        0.11967924237251282,
        0.12640470266342163,
        -0.17573678493499756,
        0.12769058346748352,
        0.07990684360265732,
        0.059564076364040375,
        0.10388264060020447,
        -0.13638551533222198,
        0.03430700674653053,
        0.10425318032503128,
        -0.0752045139670372,
        0.052802857011556625,
        0.10794258862733841,
        0.12792181968688965,
        0.0503905825316906,
        0.10371304303407669,
        -0.05267323553562164,
        -0.08848587423563004,
        -0.03428700938820839,
        0.009278734214603901,
        -0.008950472809374332,
        -0.01855986937880516,
        -0.13468825817108154,
        0.11097176373004913,
        0.07302350550889969,
        0.045571617782115936,
        -0.08777409791946411,
        0.014164838939905167,
        0.042455319315195084,
        -0.1012527197599411,
        0.16113899648189545,
        0.1563245803117752,
        0.07427315413951874,
        0.0744820162653923,
        0.10439912974834442,
        -0.13960810005664825,
        -0.16230809688568115,
        -0.054122261703014374,
        -0.0752660483121872,
        0.16285377740859985,
        0.018045108765363693,
        0.06715615838766098,
        -0.10893835127353668,
        -0.06545386463403702,
        -0.1581253856420517,
        -0.15229548513889313,
        0.09647693485021591,
        0.16561688482761383,
        -0.02471611276268959,
        -0.07473886013031006,
        -0.011382851749658585,
        0.08534897118806839,
        -0.030609970912337303,
        0.1741444170475006,
        -0.08604533970355988,
        0.11373794823884964,
        -0.09576836228370667,
        -0.1281765103340149,
        0.08638491481542587,
        0.10142025351524353,
        0.08318424224853516,
        0.030143551528453827,
        -0.037761278450489044,
        0.09340125322341919,
        0.1626172661781311,
        -0.15709419548511505,
        -0.0707789734005928,
        -0.07895781844854355,
        0.1524345725774765,
        0.12251536548137665,
        0.07976488769054413,
        0.0888226255774498,
        0.044837016612291336,
        -0.17433103919029236,
        0.05376245453953743,
        -0.002120407996699214,
        0.056535422801971436,
        0.1264421045780182,
        0.0354115292429924,
        0.03380623832345009,
        0.019428832456469536,
        -0.12413156777620316,
        0.15829326212406158,
        -0.12784314155578613,
        0.1461106687784195,
        -0.1357850432395935,
        -0.10419756919145584,
        0.1646222174167633,
        0.020082572475075722,
        -0.016939619556069374,
        -0.10678211599588394,
        0.1762334555387497,
        0.0867769867181778,
        -0.1617761254310608,
        0.07101374864578247,
        0.12694500386714935,
        -0.0018027471378445625,
        -0.17285223305225372,
        -0.06168464943766594,
        -0.030760349705815315,
        0.06084942817687988,
        0.06683803349733353,
        0.0080298176035285,
        0.11570203304290771,
        -0.09418642520904541,
        -0.08901528269052505,
        0.03772507607936859,
        0.15395577251911163,
        -0.06987003237009048,
        -0.04784345626831055,
        -0.17169806361198425,
        0.11757050454616547,
        0.029702547937631607,
        -0.1449800580739975,
        -0.05694863200187683,
        0.027842670679092407,
        -0.06640923023223877,
        0.007128991652280092,
        -0.1363174319267273,
        0.0413346141576767,
        -0.024007834494113922,
        0.17503541707992554,
        -0.09337511658668518,
        0.057627953588962555,
        0.032833363860845566,
        -0.135828897356987,
        -0.0910993367433548,
        0.07870671153068542,
        0.10296257585287094,
        -0.01688716746866703,
        0.011904503218829632,
        0.17297998070716858,
        -0.12435968965291977,
        0.13815835118293762,
        -0.020243152976036072,
        -0.08286778628826141,
        0.14268819987773895,
        -0.14468050003051758,
        -0.1461891233921051,
        0.03204188868403435,
        0.06076228991150856,
        -0.12760929763317108,
        0.15773867070674896,
        0.017811890691518784,
        0.07829499989748001,
        -0.14631442725658417,
        0.1500881314277649,
        0.16706572473049164,
        -0.033151742070913315,
        -0.12787394225597382,
        -0.16212071478366852,
        0.05981273949146271,
        0.16936826705932617,
        0.010560124181210995,
        0.0013052456779405475,
        0.04017625004053116,
        0.16997042298316956,
        -0.12816205620765686,
        -0.01655224710702896,
        0.1344631314277649,
        -0.004153719171881676,
        0.15894824266433716,
        0.018725886940956116,
        -0.17408739030361176,
        -0.11877455562353134,
        -0.024987516924738884,
        -0.005020532291382551,
        0.17115193605422974,
        0.10084092617034912,
        -0.15935544669628143,
        -0.1342199295759201,
        -0.05379652976989746,
        -0.0704052522778511,
        -0.04318724200129509,
        -0.03374011069536209,
        -0.17449750006198883,
        0.09548480063676834,
        0.022687479853630066,
        0.11807658523321152,
        0.09787098318338394,
        0.03527238219976425,
        0.0797022208571434,
        -0.03560028225183487,
        -0.15453341603279114,
        -0.06536411494016647,
        0.0453849695622921,
        -0.04205157607793808,
        -0.08146199584007263,
        -0.05848231166601181,
        0.012394018471240997,
        0.05978682264685631,
        0.11150557547807693,
        0.014847428537905216,
        0.04118773341178894,
        -0.04453880712389946,
        -0.16827143728733063,
        0.16755084693431854,
        -0.10073954612016678,
        0.0001105722549255006,
        -0.032155200839042664,
        0.08784119784832001,
        -0.10468631982803345,
        -0.07502994686365128,
        0.06457106024026871,
        0.0818970799446106,
        0.1608986109495163,
        0.017201371490955353,
        0.10785150527954102,
        0.14467191696166992,
        -0.16584084928035736,
        0.014673319645226002,
        -0.17144210636615753,
        0.16269947588443756,
        -0.15909890830516815,
        -0.16899265348911285,
        -0.007956713438034058,
        -0.10484618693590164,
        -0.006905065383762121,
        -0.0437406525015831,
        -0.12094170600175858,
        -0.14095893502235413,
        -0.04159461706876755,
        0.15710900723934174,
        0.1484549343585968,
        0.05795975401997566,
        0.00616260664537549,
        -0.11011770367622375,
        -0.035055600106716156,
        0.1562286913394928,
        0.0005311134736984968,
        -0.1370493471622467,
        0.15890800952911377,
        -0.09431535005569458,
        0.031099675223231316,
        0.12392416596412659,
        0.01615370623767376,
        0.155676931142807,
        -0.09127885848283768,
        0.08221075683832169,
        0.032796505838632584,
        -0.015046361833810806,
        0.15879495441913605,
        0.08294280618429184,
        -0.14115449786186218,
        0.08557525277137756,
        -0.1344611793756485,
        0.16719217598438263,
        0.039276499301195145,
        -0.06814198940992355,
        0.08002211153507233,
        0.04344690963625908,
        0.030277663841843605,
        0.00878078956156969,
        -0.14699187874794006,
        -0.11536848545074463,
        0.08654282242059708,
        0.042967889457941055,
        -0.09542197734117508,
        0.02297833561897278,
        -0.06758838891983032,
        -0.06266452372074127,
        -0.058570653200149536,
        -0.074611596763134,
        0.00803622417151928,
        0.01546106580644846,
        -0.08581464737653732,
        -0.05147067829966545,
        0.09248339384794235,
        0.004186699166893959,
        0.013606203719973564,
        0.08367051184177399,
        -0.14933821558952332,
        0.05850125849246979,
        0.1750139445066452,
        -0.04032715782523155,
        0.15597650408744812,
        0.058533646166324615,
        -0.12238917499780655,
        -0.012103099375963211,
        0.03934094309806824,
        0.13035179674625397,
        0.13543550670146942,
        0.01957731693983078,
        -0.0325433723628521,
        -0.1749197244644165,
        -0.04991792514920235,
        -0.03572702035307884,
        -0.14859001338481903,
        0.09602322429418564,
        -0.10210449248552322,
        -0.044332604855298996,
        -0.009231951087713242,
        0.09511272609233856,
        -0.009331922978162766,
        -0.07829219847917557,
        0.1027824655175209,
        -0.028047293424606323,
        0.07940921187400818,
        0.050185367465019226,
        -0.06488463282585144,
        0.0765015259385109,
        0.12416920810937881,
        -0.1469108611345291,
        -0.08192384243011475,
        0.0871591567993164,
        -0.1541782021522522,
        -0.07298293709754944,
        0.1262986958026886,
        -0.126260906457901,
        0.012085524387657642,
        -0.02724245749413967,
        0.07075463235378265,
        -0.09210329502820969,
        -0.03225694224238396,
        -0.04724663868546486,
        0.12780924141407013,
        -0.015238972380757332,
        -0.14594334363937378,
        -0.0690387487411499,
        -0.04295535013079643,
        -0.13530516624450684,
        -0.13356740772724152,
        -0.028783220797777176,
        0.10040993243455887,
        -0.15817584097385406,
        0.03242262080311775,
        0.003118255641311407,
        0.09366723895072937,
        -0.046936944127082825,
        -0.16266779601573944,
        0.08221385627985,
        0.04028231278061867,
        -0.1634889543056488,
        -0.0660131499171257,
        -0.11320967972278595,
        -0.06523530930280685,
        0.16118556261062622,
        -0.15564221143722534,
        0.006648728623986244,
        0.05158624425530434,
        0.16870708763599396,
        -0.09248843044042587,
        0.10684459656476974,
        0.13962975144386292,
        -0.14768251776695251,
        0.1323179006576538,
        0.10376408696174622,
        -0.1238982230424881,
        -0.06832998991012573,
        -0.029515964910387993,
        -0.08101993799209595,
        -0.13733942806720734,
        -0.13150522112846375,
        -0.06650393456220627,
        0.03699026629328728,
        0.13334782421588898,
        0.0713813379406929,
        0.04082067683339119,
        0.09292027354240417,
        -0.006428827065974474,
        0.13178345561027527,
        0.1494499146938324,
        0.10387606918811798,
        -0.07517345249652863,
        0.09084637463092804,
        -0.037152424454689026,
        -0.006381327752023935,
        -0.08504249900579453,
        -0.04383699968457222,
        -0.11453644186258316,
        0.13450103998184204,
        -0.16218847036361694,
        0.12152567505836487,
        0.11884737014770508,
        0.03652799874544144,
        0.006908774375915527,
        0.13484063744544983,
        -0.11109430342912674,
        0.06550326198339462,
        0.07220347225666046,
        -0.11002634465694427,
        -0.15600278973579407,
        -0.07721768319606781,
        -0.12983907759189606,
        -0.137620210647583,
        -0.1088356152176857,
        -0.06802273541688919,
        -0.03970220312476158,
        0.14136838912963867,
        0.12107525020837784,
        0.15318256616592407,
        0.1446615755558014,
        -0.13892656564712524,
        0.08977504074573517,
        -0.04227801039814949,
        0.10472477972507477,
        -0.12808126211166382,
        -0.1687515377998352,
        -0.08496832102537155,
        0.12816014885902405,
        0.10235028713941574,
        0.09490884095430374,
        0.1587924063205719,
        0.09852508455514908,
        -0.04958169907331467,
        -0.05883173272013664,
        0.026872072368860245,
        0.08609431236982346,
        -0.08820595592260361,
        -0.09737620502710342,
        0.0814439132809639,
        0.007213601376861334,
        0.040964312851428986,
        0.12005715072154999,
        0.1561034768819809,
        0.04830414429306984,
        -0.06800098717212677,
        0.007438223343342543,
        0.082134909927845,
        0.15636491775512695,
        -0.17164790630340576,
        0.056335605680942535,
        0.11794030666351318,
        -0.020941967144608498,
        0.16566140949726105,
        0.11229673773050308,
        0.002182658761739731,
        -0.04305662959814072,
        0.15187641978263855,
        0.04054497182369232,
        -0.1691056489944458,
        -0.14186643064022064,
        0.09213941544294357,
        0.1092989593744278,
        0.01752263680100441,
        0.13873836398124695,
        0.013535059988498688,
        -0.10952174663543701,
        0.11024601757526398,
        0.1498452126979828,
        -0.11595804989337921,
        0.17361512780189514,
        0.16927874088287354,
        -0.15628927946090698,
        -0.11770611256361008,
        -0.006438963580876589,
        0.13574616611003876,
        -0.0025629287119954824,
        0.03624247387051582,
        -0.15663178265094757,
        0.08265938609838486,
        -0.06630082428455353,
        -0.09281949698925018,
        0.13200104236602783,
        0.08470285683870316,
        0.017039865255355835,
        -0.09260368347167969,
        0.05336903780698776,
        -0.0857631042599678,
        0.09154683351516724,
        0.02194438874721527
      ]
    },
    "0_bias": {
      "shape": [
        16
      ],
      "dtype": "Float",
      "data": [
        0.17219486832618713,
        0.04873789846897125,
        -0.010677925311028957,
        -0.10272541642189026,
        -0.15205882489681244,
        0.0352972038090229,
        -0.1159839928150177,
        -0.06219184771180153,
        0.06196204200387001,
        0.04055127501487732,
        -0.09738221019506454,
        -0.13119417428970337,
        -0.08888949453830719,
        -0.04809926822781563,
        -0.0692768394947052,
        -0.040295567363500595
      ]
    },
    "2_weight": {
      "shape": [
        8,
        16
      ],
      "dtype": "Float",
      "data": [
        -0.15658026933670044,
        0.009491503238677979,
        -0.043250828981399536,
        -0.13010850548744202,
        0.09870299696922302,
        0.22636452317237854,
        0.21381983160972595,
        0.010914146900177002,
        -0.04047355055809021,
        -0.22731366753578186,
        0.04130712151527405,
        -0.08900770545005798,
        -0.23871412873268127,
        -0.2373635172843933,
        -0.1715245544910431,
        0.13577380776405334,
        0.08282843232154846,
        0.010298848152160645,
        0.24103182554244995,
        -0.14818179607391357,
        0.08717134594917297,
        0.009161889553070068,
        -0.04738408327102661,
        -0.12655320763587952,
        -0.18798089027404785,
        -0.20022064447402954,
        -0.12301421165466309,
        0.21054407954216003,
        -0.1984218955039978,
        0.213178813457489,
        -0.1265524923801422,
        0.011995077133178711,
        0.04502549767494202,
        -0.08942675590515137,
        -0.07434606552124023,
        -0.139957457780838,
        -0.07129204273223877,
        -0.24732208251953125,
        -0.2027827799320221,
        0.11928391456604004,
        -0.23409563302993774,
        -0.012230545282363892,
        -0.16492849588394165,
        -0.12715020775794983,
        0.22096583247184753,
        0.1606016457080841,
        0.1584646999835968,
        -0.2387581765651703,
        0.11915850639343262,
        -0.04880732297897339,
        0.14630404114723206,
        0.20252612233161926,
        -0.15918177366256714,
        0.1893005073070526,
        -0.05572712421417236,
        0.13313955068588257,
        0.2192026972770691,
        0.11357402801513672,
        -0.008390098810195923,
        0.1093657910823822,
        -0.10423973202705383,
        -0.10908785462379456,
        -0.20312798023223877,
        0.03338444232940674,
        0.1783618927001953,
        -0.01978638768196106,
        -0.06337156891822815,
        0.2181573212146759,
        -0.07686886191368103,
        0.1481899619102478,
        -0.15496253967285156,
        0.04181137681007385,
        0.2382725477218628,
        0.04058268666267395,
        -0.14316269755363464,
        -0.21539804339408875,
        0.06321999430656433,
        0.1741887331008911,
        -0.18829232454299927,
        -0.18582206964492798,
        -0.1638915240764618,
        -0.16877830028533936,
        0.18386992812156677,
        0.20385324954986572,
        0.08276325464248657,
        0.20477795600891113,
        -0.21470504999160767,
        0.22489270567893982,
        0.13485166430473328,
        0.07868820428848267,
        -0.23729920387268066,
        0.13224327564239502,
        0.0900963842868805,
        -0.08815613389015198,
        -0.175969660282135,
        -0.16639083623886108,
        -0.22708392143249512,
        0.19014450907707214,
        -0.06880176067352295,
        -0.2005738615989685,
        -0.22262179851531982,
        0.20201152563095093,
        0.047272711992263794,
        0.04053473472595215,
        -0.06520366668701172,
        -0.08007431030273438,
        0.08111009001731873,
        -0.23119640350341797,
        0.17916497588157654,
        -0.15564164519309998,
        0.024456322193145752,
        0.10857921838760376,
        0.21097886562347412,
        0.05121588706970215,
        -0.08632045984268188,
        -0.019736409187316895,
        0.11134219169616699,
        0.08554130792617798,
        0.06888341903686523,
        0.20080223679542542,
        0.23958545923233032,
        -0.1466899812221527,
        0.11988502740859985,
        -0.17732715606689453,
        -0.06649729609489441,
        -0.09966906905174255,
        0.02394235134124756,
        0.19969716668128967
      ]
    },
    "2_bias": {
      "shape": [
        8
      ],
      "dtype": "Float",
      "data": [
        0.03783753514289856,
        0.24349156022071838,
        0.060130178928375244,
        0.18782079219818115,
        0.22207394242286682,
        0.023894786834716797,
        -0.0891670286655426,
        -0.0410802960395813
      ]
    }
  },
  "inputs": {
    "input_0": [
      2,
      32
    ]
  },
  "outputs": {
    "out_3_4": null
  }
}